<?xml version="1.0" encoding="ISO-8859-1"?>
<smile version="1.0" id="barley" numsamples="10000" discsamples="10000">
	<nodes>
		<cpt id="forfrugt">
			<state id="Cereals" />
			<state id="Cer_rotation" />
			<state id="Beets" />
			<state id="Clovergrass" />
			<state id="Other" />
			<probabilities>0.2 0.2 0.2 0.2 0.2</probabilities>
		</cpt>
		<cpt id="jordtype">
			<state id="Jb_1_" />
			<state id="JB_2" />
			<state id="JB_3" />
			<state id="JB_4" />
			<state id="JB_5" />
			<state id="JB_6" />
			<state id="Jb_7" />
			<state id="JB_8" />
			<state id="JB_9" />
			<probabilities>0.1111111111111111 0.1111111111111111 0.1111111111111111 0.1111111111111111 0.1111111111111111 0.1111111111111111 0.1111111111111111 0.1111111111111111 0.1111111111111111</probabilities>
		</cpt>
		<cpt id="pesticid">
			<state id="Yes" />
			<state id="No" />
			<probabilities>9.999000099989999e-05 0.999900009999</probabilities>
		</cpt>
		<cpt id="exptgens">
			<state id="x_30" />
			<state id="x30_40" />
			<state id="x40_50" />
			<state id="x50_60" />
			<state id="x60_70" />
			<state id="x_70" />
			<parents>jordtype forfrugt pesticid</parents>
			<probabilities>0.02279771413458276 0.4771522958344234 0.4771522958344234 0.02269771407258273 9.999006199383843e-05 9.999006199383843e-05 0.1150650966546812 0.6728985652347949 0.2092371757592277 0.002599222183346634 9.997008397487055e-05 9.997008397487055e-05 0.008199182869714005 0.3363661177281412 0.6005402101890734 0.05459451910808168 0.0001999800699930245 9.999003499651224e-05 0.05938812375524951 0.6105782442312977 0.3225351290140517 0.007298542919417169 9.998003999201601e-05 9.998003999201601e-05 0.0013 0.1573 0.6827000000000001 0.1573 0.0013 0.0001 0.0178963881883838 0.4422117081402727 0.5109976627415426 0.0286942810617745 9.997993401324356e-05 9.997993401324356e-05 0.0013 0.1573 0.6827000000000001 0.1573 0.0013 0.0001 0.0178963881883838 0.4422117081402727 0.5109976627415426 0.0286942810617745 9.997993401324356e-05 9.997993401324356e-05 0.004699532396761522 0.2695731374823001 0.6449353289170178 0.08039204099994091 0.000299970152984778 9.9990050994926e-05 0.04089591308669218 0.5615441796941374 0.3854611233475594 0.01189880380761722 9.999003199681021e-05 9.999003199681021e-05 0.008199182869714005 0.3363661177281412 0.6005402101890734 0.05459451910808168 0.0001999800699930245 9.999003499651224e-05 0.05938812375524951 0.6105782442312977 0.3225351290140517 0.007298542919417169 9.998003999201601e-05 9.998003999201601e-05 0.002599481767647602 0.2092581422955368 0.6729654576165112 0.1143770777764129 0.0006998604759051235 9.998006798644623e-05 0.02739450657468158 0.5043991210557891 0.4493101078344259 0.01869630448711308 9.998002399520577e-05 9.998002399520577e-05 0.000299970152984778 0.08039204099994091 0.6449353289170178 0.2695731374823001 0.004699532396761522 9.9990050994926e-05 0.006899316347371037 0.3157682905068272 0.6154385662034808 0.06159385666634812 0.0001999801839817692 9.999009199088461e-05 0.000299970152984778 0.08039204099994091 0.6449353289170178 0.2695731374823001 0.004699532396761522 9.9990050994926e-05 0.006899316347371037 0.3157682905068272 0.6154385662034808 0.06159385666634812 0.0001999801839817692 9.999009199088461e-05 0.0013 0.1573 0.6827000000000001 0.1573 0.0013 0.0001 0.0178963881883838 0.4422117081402727 0.5109976627415426 0.0286942810617745 9.997993401324356e-05 9.997993401324356e-05 0.02279771413458276 0.4771522958344234 0.4771522958344234 0.02269771407258273 9.999006199383843e-05 9.999006199383843e-05 0.1150650966546812 0.6728985652347949 0.2092371757592277 0.002599222183346634 9.997008397487055e-05 9.997008397487055e-05 0.008199182869714005 0.3363661177281412 0.6005402101890734 0.05459451910808168 0.0001999800699930245 9.999003499651224e-05 0.05938812375524951 0.6105782442312977 0.3225351290140517 0.007298542919417169 9.998003999201601e-05 9.998003999201601e-05 0.0013 0.1573 0.6827000000000001 0.1573 0.0013 0.0001 0.0178963881883838 0.4422117081402727 0.5109976627415426 0.0286942810617745 9.997993401324356e-05 9.997993401324356e-05 0.0013 0.1573 0.6827000000000001 0.1573 0.0013 0.0001 0.0178963881883838 0.4422117081402727 0.5109976627415426 0.0286942810617745 9.997993401324356e-05 9.997993401324356e-05 0.004699532396761522 0.2695731374823001 0.6449353289170178 0.08039204099994091 0.000299970152984778 9.9990050994926e-05 0.04089591308669218 0.5615441796941374 0.3854611233475594 0.01189880380761722 9.999003199681021e-05 9.999003199681021e-05 0.0013 0.1573 0.6827000000000001 0.1573 0.0013 0.0001 0.0178963881883838 0.4422117081402727 0.5109976627415426 0.0286942810617745 9.997993401324356e-05 9.997993401324356e-05 0.000299970152984778 0.08039204099994091 0.6449353289170178 0.2695731374823001 0.004699532396761522 9.9990050994926e-05 0.006899316347371037 0.3157682905068272 0.6154385662034808 0.06159385666634812 0.0001999801839817692 9.999009199088461e-05 9.999999999999998e-05 0.0227 0.4771999999999999 0.4771999999999999 0.0227 9.999999999999998e-05 0.0013 0.1573 0.6827000000000001 0.1573 0.0013 0.0001 9.999999999999998e-05 0.0227 0.4771999999999999 0.4771999999999999 0.0227 9.999999999999998e-05 0.0013 0.1573 0.6827000000000001 0.1573 0.0013 0.0001 0.0001999800699930245 0.05459451910808168 0.6005402101890734 0.3363661177281412 0.008199182869714005 9.999003499651224e-05 0.0041 0.2569 0.652 0.08649999999999999 0.0004 0.0001 9.999999999999998e-05 0.0227 0.4771999999999999 0.4771999999999999 0.0227 9.999999999999998e-05 0.0013 0.1573 0.6827000000000001 0.1573 0.0013 0.0001 9.999000199980003e-05 0.01389860027797201 0.4067590081351801 0.5432460108649202 0.03589640071792801 9.999000199980003e-05 0.0006999295240479237 0.1182879195642147 0.6748325411138721 0.2036798614976942 0.00239975836816431 9.998993200684625e-05 0.0001 0.0013 0.1573 0.6827000000000001 0.1573 0.0013 9.998997200280785e-05 0.02869709196481425 0.5110488569063201 0.4422558761683547 0.0177981950165054 9.998997200280785e-05 0.0001 0.0013 0.1573 0.6827000000000001 0.1573 0.0013 9.998997200280785e-05 0.02869709196481425 0.5110488569063201 0.4422558761683547 0.0177981950165054 9.998997200280785e-05 9.9990050994926e-05 0.004699532396761522 0.2695731374823001 0.6449353289170178 0.08039204099994091 0.000299970152984778 0.0001999801839817692 0.06159385666634812 0.6154385662034808 0.3157682905068272 0.006899316347371037 9.999009199088461e-05 9.999999999999998e-05 0.0227 0.4771999999999999 0.4771999999999999 0.0227 9.999999999999998e-05 0.0013 0.1573 0.6827000000000001 0.1573 0.0013 0.0001 9.999000199980003e-05 0.01389860027797201 0.4067590081351801 0.5432460108649202 0.03589640071792801 9.999000199980003e-05 0.0006999295240479237 0.1182879195642147 0.6748325411138721 0.2036798614976942 0.00239975836816431 9.998993200684625e-05 0.0001 0.0013 0.1573 0.6827000000000001 0.1573 0.0013 9.998997200280785e-05 0.02869709196481425 0.5110488569063201 0.4422558761683547 0.0177981950165054 9.998997200280785e-05 0.0001 0.0013 0.1573 0.6827000000000001 0.1573 0.0013 9.998997200280785e-05 0.02869709196481425 0.5110488569063201 0.4422558761683547 0.0177981950165054 9.998997200280785e-05 9.9990050994926e-05 0.004699532396761522 0.2695731374823001 0.6449353289170178 0.08039204099994091 0.000299970152984778 0.0001999801839817692 0.06159385666634812 0.6154385662034808 0.3157682905068272 0.006899316347371037 9.999009199088461e-05 9.999000199980003e-05 9.999000199980003e-05 0.03589640071792801 0.5432460108649202 0.4067590081351801 0.01389860027797201 9.998997900210439e-05 0.004399559076092594 0.2631739447334716 0.6485348638076786 0.08339168248774667 0.0003999599160084176 9.999006199383843e-05 9.999006199383843e-05 0.02269771407258273 0.4771522958344234 0.4771522958344234 0.02279771413458276 9.998006798644623e-05 0.002599481767647602 0.2092581422955368 0.6729654576165112 0.1143770777764129 0.0006998604759051235 9.99699670099109e-05 9.99699670099109e-05 0.004698588449465812 0.2695189110587594 0.6448067872137603 0.08077577334399479 9.998994400563136e-05 0.0003999597760225255 0.08969094977306814 0.6552346330686055 0.2506748596220786 0.003899607816219623 9.997996800641023e-05 9.997996800641023e-05 0.008198357376525639 0.3363328923734744 0.6004798078464615 0.0547889824675256 9.999003199681024e-05 0.0007999202559744819 0.1221880391001725 0.6764322164583093 0.1981800634176203 0.002299770735926636 9.999000199980003e-05 9.999000199980003e-05 0.01389860027797201 0.4067590081351801 0.5432460108649202 0.03589640071792801 9.998992800725182e-05 0.001399858992101525 0.162083883299604 0.6825315085773138 0.1525848901388791 0.001299869064094274 0.0013 0.1573 0.6827000000000001 0.1573 0.0013 0.0001 0.0178963881883838 0.4422117081402727 0.5109976627415426 0.0286942810617745 9.997993401324356e-05 9.997993401324356e-05 0.000299970152984778 0.08039204099994091 0.6449353289170178 0.2695731374823001 0.004699532396761522 9.9990050994926e-05 0.006899316347371037 0.3157682905068272 0.6154385662034808 0.06159385666634812 0.0001999801839817692 9.999009199088461e-05 9.999999999999998e-05 0.0227 0.4771999999999999 0.4771999999999999 0.0227 9.999999999999998e-05 0.0013 0.1573 0.6827000000000001 0.1573 0.0013 0.0001 9.999999999999998e-05 0.0227 0.4771999999999999 0.4771999999999999 0.0227 9.999999999999998e-05 0.0013 0.1573 0.6827000000000001 0.1573 0.0013 0.0001 0.0001999800699930245 0.05459451910808168 0.6005402101890734 0.3363661177281412 0.008199182869714005 9.999003499651224e-05 0.0041 0.2569 0.652 0.08649999999999999 0.0004 0.0001 0.0013 0.1573 0.6827000000000001 0.1573 0.0013 0.0001 0.0178963881883838 0.4422117081402727 0.5109976627415426 0.0286942810617745 9.997993401324356e-05 9.997993401324356e-05 0.000299970152984778 0.08039204099994091 0.6449353289170178 0.2695731374823001 0.004699532396761522 9.9990050994926e-05 0.006899316347371037 0.3157682905068272 0.6154385662034808 0.06159385666634812 0.0001999801839817692 9.999009199088461e-05 9.999999999999998e-05 0.0227 0.4771999999999999 0.4771999999999999 0.0227 9.999999999999998e-05 0.0013 0.1573 0.6827000000000001 0.1573 0.0013 0.0001 9.999999999999998e-05 0.0227 0.4771999999999999 0.4771999999999999 0.0227 9.999999999999998e-05 0.0013 0.1573 0.6827000000000001 0.1573 0.0013 0.0001 0.0001999800699930245 0.05459451910808168 0.6005402101890734 0.3363661177281412 0.008199182869714005 9.999003499651224e-05 0.0041 0.2569 0.652 0.08649999999999999 0.0004 0.0001</probabilities>
		</cpt>
		<cpt id="komm">
			<state id="state0" />
			<state id="state1" />
			<state id="state2" />
			<state id="state3" />
			<state id="state4" />
			<probabilities>0.2 0.2 0.2 0.2 0.2</probabilities>
		</cpt>
		<cpt id="nedbarea">
			<state id="x1___375_" />
			<state id="x2__375_500_" />
			<state id="x3___500_" />
			<parents>komm</parents>
			<probabilities>0.3333333333333333 0.3333333333333333 0.3333333333333333 0.3333333333333333 0.3333333333333333 0.3333333333333333 0.3333333333333333 0.3333333333333333 0.3333333333333333 0.3333333333333333 0.3333333333333333 0.3333333333333333 0.3333333333333333 0.3333333333333333 0.3333333333333333</probabilities>
		</cpt>
		<cpt id="nmin">
			<state id="x0_15" />
			<state id="x15_30" />
			<state id="x30_45" />
			<state id="x45_60" />
			<state id="x60_75" />
			<state id="x_75" />
			<parents>jordtype nedbarea</parents>
			<probabilities>0.4998000799680128 0.4998000799680128 9.996001599360256e-05 9.996001599360256e-05 9.996001599360256e-05 9.996001599360256e-05 0.4998000799680128 0.4998000799680128 9.996001599360256e-05 9.996001599360256e-05 9.996001599360256e-05 9.996001599360256e-05 0.4998000799680128 0.4998000799680128 9.996001599360256e-05 9.996001599360256e-05 9.996001599360256e-05 9.996001599360256e-05 0.0020997900209979 0.2353764623537646 0.6858314168583141 0.0763923607639236 0.0001999800019998 9.999000099990002e-05 0.00619876024795041 0.4937012597480504 0.4937012597480504 0.00619876024795041 9.998000399920017e-05 9.998000399920017e-05 0.02279316205138459 0.8183544936519044 0.1585524342697191 9.997000899730081e-05 9.997000899730081e-05 9.997000899730081e-05 0.4998000799680128 0.4998000799680128 9.996001599360256e-05 9.996001599360256e-05 9.996001599360256e-05 9.996001599360256e-05 0.4998000799680128 0.4998000799680128 9.996001599360256e-05 9.996001599360256e-05 9.996001599360256e-05 9.996001599360256e-05 0.4998000799680128 0.4998000799680128 9.996001599360256e-05 9.996001599360256e-05 9.996001599360256e-05 9.996001599360256e-05 0.0020997900209979 0.2353764623537646 0.6858314168583141 0.0763923607639236 0.0001999800019998 9.999000099990002e-05 0.00619876024795041 0.4937012597480504 0.4937012597480504 0.00619876024795041 9.998000399920017e-05 9.998000399920017e-05 0.02279316205138459 0.8183544936519044 0.1585524342697191 9.997000899730081e-05 9.997000899730081e-05 9.997000899730081e-05 0.0004000000000000001 0.04740000000000001 0.4522000000000001 0.4522000000000001 0.04740000000000001 0.0004000000000000001 0.0008998200359928015 0.1047790441911618 0.6282743451309738 0.259748050389922 0.00619876024795041 9.998000399920017e-05 0.0020997900209979 0.2353764623537646 0.6858314168583141 0.0763923607639236 0.0001999800019998 9.999000099990002e-05 0.0004000000000000001 0.04740000000000001 0.4522000000000001 0.4522000000000001 0.04740000000000001 0.0004000000000000001 0.0008998200359928015 0.1047790441911618 0.6282743451309738 0.259748050389922 0.00619876024795041 9.998000399920017e-05 0.0020997900209979 0.2353764623537646 0.6858314168583141 0.0763923607639236 0.0001999800019998 9.999000099990002e-05 0.0004000000000000001 0.04740000000000001 0.4522000000000001 0.4522000000000001 0.04740000000000001 0.0004000000000000001 0.0008998200359928015 0.1047790441911618 0.6282743451309738 0.259748050389922 0.00619876024795041 9.998000399920017e-05 0.0020997900209979 0.2353764623537646 0.6858314168583141 0.0763923607639236 0.0001999800019998 9.999000099990002e-05 0.0004000000000000001 0.04740000000000001 0.4522000000000001 0.4522000000000001 0.04740000000000001 0.0004000000000000001 0.0008998200359928015 0.1047790441911618 0.6282743451309738 0.259748050389922 0.00619876024795041 9.998000399920017e-05 0.0020997900209979 0.2353764623537646 0.6858314168583141 0.0763923607639236 0.0001999800019998 9.999000099990002e-05 0.0004000000000000001 0.04740000000000001 0.4522000000000001 0.4522000000000001 0.04740000000000001 0.0004000000000000001 0.0008998200359928015 0.1047790441911618 0.6282743451309738 0.259748050389922 0.00619876024795041 9.998000399920017e-05 0.0020997900209979 0.2353764623537646 0.6858314168583141 0.0763923607639236 0.0001999800019998 9.999000099990002e-05</probabilities>
		</cpt>
		<cpt id="aar_mod">
			<state id="x_25" />
			<state id="x_20" />
			<state id="x_15" />
			<state id="x_10" />
			<state id="x_5" />
			<state id="x0" />
			<state id="x5" />
			<state id="x10" />
			<state id="x15" />
			<state id="x20" />
			<state id="x25" />
			<parents>komm jordtype</parents>
			<probabilities>0.09090909090909091 0.09090909090909091 0.09090909090909091 0.09090909090909091 0.09090909090909091 0.09090909090909091 0.09090909090909091 0.09090909090909091 0.09090909090909091 0.09090909090909091 0.09090909090909091 0.09090909090909091 0.09090909090909091 0.09090909090909091 0.09090909090909091 0.09090909090909091 0.09090909090909091 0.09090909090909091 0.09090909090909091 0.09090909090909091 0.09090909090909091 0.09090909090909091 0.09090909090909091 0.09090909090909091 0.09090909090909091 0.09090909090909091 0.09090909090909091 0.09090909090909091 0.09090909090909091 0.09090909090909091 0.09090909090909091 0.09090909090909091 0.09090909090909091 0.09090909090909091 0.09090909090909091 0.09090909090909091 0.09090909090909091 0.09090909090909091 0.09090909090909091 0.09090909090909091 0.09090909090909091 0.09090909090909091 0.09090909090909091 0.09090909090909091 0.09090909090909091 0.09090909090909091 0.09090909090909091 0.09090909090909091 0.09090909090909091 0.09090909090909091 0.09090909090909091 0.09090909090909091 0.09090909090909091 0.09090909090909091 0.09090909090909091 0.09090909090909091 0.09090909090909091 0.09090909090909091 0.09090909090909091 0.09090909090909091 0.09090909090909091 0.09090909090909091 0.09090909090909091 0.09090909090909091 0.09090909090909091 0.09090909090909091 0.09090909090909091 0.09090909090909091 0.09090909090909091 0.09090909090909091 0.09090909090909091 0.09090909090909091 0.09090909090909091 0.09090909090909091 0.09090909090909091 0.09090909090909091 0.09090909090909091 0.09090909090909091 0.09090909090909091 0.09090909090909091 0.09090909090909091 0.09090909090909091 0.09090909090909091 0.09090909090909091 0.09090909090909091 0.09090909090909091 0.09090909090909091 0.09090909090909091 0.09090909090909091 0.09090909090909091 0.09090909090909091 0.09090909090909091 0.09090909090909091 0.09090909090909091 0.09090909090909091 0.09090909090909091 0.09090909090909091 0.09090909090909091 0.09090909090909091 0.09090909090909091 0.09090909090909091 0.09090909090909091 0.09090909090909091 0.09090909090909091 0.09090909090909091 0.09090909090909091 0.09090909090909091 0.09090909090909091 0.09090909090909091 0.09090909090909091 0.09090909090909091 0.09090909090909091 0.09090909090909091 0.09090909090909091 0.09090909090909091 0.09090909090909091 0.09090909090909091 0.09090909090909091 0.09090909090909091 0.09090909090909091 0.09090909090909091 0.09090909090909091 0.09090909090909091 0.09090909090909091 0.09090909090909091 0.09090909090909091 0.09090909090909091 0.09090909090909091 0.09090909090909091 0.09090909090909091 0.09090909090909091 0.09090909090909091 0.09090909090909091 0.09090909090909091 0.09090909090909091 0.09090909090909091 0.09090909090909091 0.09090909090909091 0.09090909090909091 0.09090909090909091 0.09090909090909091 0.09090909090909091 0.09090909090909091 0.09090909090909091 0.09090909090909091 0.09090909090909091 0.09090909090909091 0.09090909090909091 0.09090909090909091 0.09090909090909091 0.09090909090909091 0.09090909090909091 0.09090909090909091 0.09090909090909091 0.09090909090909091 0.09090909090909091 0.09090909090909091 0.09090909090909091 0.09090909090909091 0.09090909090909091 0.09090909090909091 0.09090909090909091 0.09090909090909091 0.09090909090909091 0.09090909090909091 0.09090909090909091 0.09090909090909091 0.09090909090909091 0.09090909090909091 0.09090909090909091 0.09090909090909091 0.09090909090909091 0.09090909090909091 0.09090909090909091 0.09090909090909091 0.09090909090909091 0.09090909090909091 0.09090909090909091 0.09090909090909091 0.09090909090909091 0.09090909090909091 0.09090909090909091 0.09090909090909091 0.09090909090909091 0.09090909090909091 0.09090909090909091 0.09090909090909091 0.09090909090909091 0.09090909090909091 0.09090909090909091 0.09090909090909091 0.09090909090909091 0.09090909090909091 0.09090909090909091 0.09090909090909091 0.09090909090909091 0.09090909090909091 0.09090909090909091 0.09090909090909091 0.09090909090909091 0.09090909090909091 0.09090909090909091 0.09090909090909091 0.09090909090909091 0.09090909090909091 0.09090909090909091 0.09090909090909091 0.09090909090909091 0.09090909090909091 0.09090909090909091 0.09090909090909091 0.09090909090909091 0.09090909090909091 0.09090909090909091 0.09090909090909091 0.09090909090909091 0.09090909090909091 0.09090909090909091 0.09090909090909091 0.09090909090909091 0.09090909090909091 0.09090909090909091 0.09090909090909091 0.09090909090909091 0.09090909090909091 0.09090909090909091 0.09090909090909091 0.09090909090909091 0.09090909090909091 0.09090909090909091 0.09090909090909091 0.09090909090909091 0.09090909090909091 0.09090909090909091 0.09090909090909091 0.09090909090909091 0.09090909090909091 0.09090909090909091 0.09090909090909091 0.09090909090909091 0.09090909090909091 0.09090909090909091 0.09090909090909091 0.09090909090909091 0.09090909090909091 0.09090909090909091 0.09090909090909091 0.09090909090909091 0.09090909090909091 0.09090909090909091 0.09090909090909091 0.09090909090909091 0.09090909090909091 0.09090909090909091 0.09090909090909091 0.09090909090909091 0.09090909090909091 0.09090909090909091 0.09090909090909091 0.09090909090909091 0.09090909090909091 0.09090909090909091 0.09090909090909091 0.09090909090909091 0.09090909090909091 0.09090909090909091 0.09090909090909091 0.09090909090909091 0.09090909090909091 0.09090909090909091 0.09090909090909091 0.09090909090909091 0.09090909090909091 0.09090909090909091 0.09090909090909091 0.09090909090909091 0.09090909090909091 0.09090909090909091 0.09090909090909091 0.09090909090909091 0.09090909090909091 0.09090909090909091 0.09090909090909091 0.09090909090909091 0.09090909090909091 0.09090909090909091 0.09090909090909091 0.09090909090909091 0.09090909090909091 0.09090909090909091 0.09090909090909091 0.09090909090909091 0.09090909090909091 0.09090909090909091 0.09090909090909091 0.09090909090909091 0.09090909090909091 0.09090909090909091 0.09090909090909091 0.09090909090909091 0.09090909090909091 0.09090909090909091 0.09090909090909091 0.09090909090909091 0.09090909090909091 0.09090909090909091 0.09090909090909091 0.09090909090909091 0.09090909090909091 0.09090909090909091 0.09090909090909091 0.09090909090909091 0.09090909090909091 0.09090909090909091 0.09090909090909091 0.09090909090909091 0.09090909090909091 0.09090909090909091 0.09090909090909091 0.09090909090909091 0.09090909090909091 0.09090909090909091 0.09090909090909091 0.09090909090909091 0.09090909090909091 0.09090909090909091 0.09090909090909091 0.09090909090909091 0.09090909090909091 0.09090909090909091 0.09090909090909091 0.09090909090909091 0.09090909090909091 0.09090909090909091 0.09090909090909091 0.09090909090909091 0.09090909090909091 0.09090909090909091 0.09090909090909091 0.09090909090909091 0.09090909090909091 0.09090909090909091 0.09090909090909091 0.09090909090909091 0.09090909090909091 0.09090909090909091 0.09090909090909091 0.09090909090909091 0.09090909090909091 0.09090909090909091 0.09090909090909091 0.09090909090909091 0.09090909090909091 0.09090909090909091 0.09090909090909091 0.09090909090909091 0.09090909090909091 0.09090909090909091 0.09090909090909091 0.09090909090909091 0.09090909090909091 0.09090909090909091 0.09090909090909091 0.09090909090909091 0.09090909090909091 0.09090909090909091 0.09090909090909091 0.09090909090909091 0.09090909090909091 0.09090909090909091 0.09090909090909091 0.09090909090909091 0.09090909090909091 0.09090909090909091 0.09090909090909091 0.09090909090909091 0.09090909090909091 0.09090909090909091 0.09090909090909091 0.09090909090909091 0.09090909090909091 0.09090909090909091 0.09090909090909091 0.09090909090909091 0.09090909090909091 0.09090909090909091 0.09090909090909091 0.09090909090909091 0.09090909090909091 0.09090909090909091 0.09090909090909091 0.09090909090909091 0.09090909090909091 0.09090909090909091 0.09090909090909091 0.09090909090909091 0.09090909090909091 0.09090909090909091 0.09090909090909091 0.09090909090909091 0.09090909090909091 0.09090909090909091 0.09090909090909091 0.09090909090909091 0.09090909090909091 0.09090909090909091 0.09090909090909091 0.09090909090909091 0.09090909090909091 0.09090909090909091 0.09090909090909091 0.09090909090909091 0.09090909090909091 0.09090909090909091 0.09090909090909091 0.09090909090909091 0.09090909090909091 0.09090909090909091 0.09090909090909091 0.09090909090909091 0.09090909090909091 0.09090909090909091 0.09090909090909091 0.09090909090909091 0.09090909090909091 0.09090909090909091 0.09090909090909091 0.09090909090909091 0.09090909090909091 0.09090909090909091 0.09090909090909091 0.09090909090909091 0.09090909090909091 0.09090909090909091 0.09090909090909091 0.09090909090909091 0.09090909090909091 0.09090909090909091 0.09090909090909091 0.09090909090909091 0.09090909090909091 0.09090909090909091 0.09090909090909091 0.09090909090909091 0.09090909090909091 0.09090909090909091 0.09090909090909091 0.09090909090909091 0.09090909090909091 0.09090909090909091 0.09090909090909091 0.09090909090909091 0.09090909090909091 0.09090909090909091 0.09090909090909091 0.09090909090909091 0.09090909090909091 0.09090909090909091 0.09090909090909091 0.09090909090909091 0.09090909090909091 0.09090909090909091 0.09090909090909091 0.09090909090909091 0.09090909090909091 0.09090909090909091 0.09090909090909091 0.09090909090909091 0.09090909090909091 0.09090909090909091 0.09090909090909091 0.09090909090909091 0.09090909090909091 0.09090909090909091 0.09090909090909091 0.09090909090909091 0.09090909090909091 0.09090909090909091 0.09090909090909091 0.09090909090909091 0.09090909090909091 0.09090909090909091 0.09090909090909091 0.09090909090909091 0.09090909090909091 0.09090909090909091 0.09090909090909091 0.09090909090909091 0.09090909090909091 0.09090909090909091 0.09090909090909091 0.09090909090909091 0.09090909090909091 0.09090909090909091 0.09090909090909091</probabilities>
		</cpt>
		<cpt id="mod_nmin">
			<state id="x0_15" />
			<state id="x15_30" />
			<state id="x30_45" />
			<state id="x45_60" />
			<state id="x60_75" />
			<state id="x_75" />
			<parents>nmin aar_mod</parents>
			<probabilities>9.995002498750625e-05 9.995002498750625e-05 0.9995002498750625 9.995002498750625e-05 9.995002498750625e-05 9.995002498750625e-05 9.995002498750625e-05 0.9995002498750625 9.995002498750625e-05 9.995002498750625e-05 9.995002498750625e-05 9.995002498750625e-05 9.995002498750625e-05 0.9995002498750625 9.995002498750625e-05 9.995002498750625e-05 9.995002498750625e-05 9.995002498750625e-05 9.995002498750625e-05 0.9995002498750625 9.995002498750625e-05 9.995002498750625e-05 9.995002498750625e-05 9.995002498750625e-05 0.9995002498750625 9.995002498750625e-05 9.995002498750625e-05 9.995002498750625e-05 9.995002498750625e-05 9.995002498750625e-05 0.9995002498750625 9.995002498750625e-05 9.995002498750625e-05 9.995002498750625e-05 9.995002498750625e-05 9.995002498750625e-05 0.9995002498750625 9.995002498750625e-05 9.995002498750625e-05 9.995002498750625e-05 9.995002498750625e-05 9.995002498750625e-05 0.9995002498750625 9.995002498750625e-05 9.995002498750625e-05 9.995002498750625e-05 9.995002498750625e-05 9.995002498750625e-05 0.9995002498750625 9.995002498750625e-05 9.995002498750625e-05 9.995002498750625e-05 9.995002498750625e-05 9.995002498750625e-05 0.9995002498750625 9.995002498750625e-05 9.995002498750625e-05 9.995002498750625e-05 9.995002498750625e-05 9.995002498750625e-05 0.9995002498750625 9.995002498750625e-05 9.995002498750625e-05 9.995002498750625e-05 9.995002498750625e-05 9.995002498750625e-05 9.995002498750625e-05 9.995002498750625e-05 9.995002498750625e-05 0.9995002498750625 9.995002498750625e-05 9.995002498750625e-05 9.995002498750625e-05 9.995002498750625e-05 0.9995002498750625 9.995002498750625e-05 9.995002498750625e-05 9.995002498750625e-05 9.995002498750625e-05 9.995002498750625e-05 0.9995002498750625 9.995002498750625e-05 9.995002498750625e-05 9.995002498750625e-05 9.995002498750625e-05 9.995002498750625e-05 0.9995002498750625 9.995002498750625e-05 9.995002498750625e-05 9.995002498750625e-05 9.995002498750625e-05 0.9995002498750625 9.995002498750625e-05 9.995002498750625e-05 9.995002498750625e-05 9.995002498750625e-05 9.995002498750625e-05 0.9995002498750625 9.995002498750625e-05 9.995002498750625e-05 9.995002498750625e-05 9.995002498750625e-05 9.995002498750625e-05 0.9995002498750625 9.995002498750625e-05 9.995002498750625e-05 9.995002498750625e-05 9.995002498750625e-05 0.9995002498750625 9.995002498750625e-05 9.995002498750625e-05 9.995002498750625e-05 9.995002498750625e-05 9.995002498750625e-05 0.9995002498750625 9.995002498750625e-05 9.995002498750625e-05 9.995002498750625e-05 9.995002498750625e-05 9.995002498750625e-05 0.9995002498750625 9.995002498750625e-05 9.995002498750625e-05 9.995002498750625e-05 9.995002498750625e-05 9.995002498750625e-05 0.9995002498750625 9.995002498750625e-05 9.995002498750625e-05 9.995002498750625e-05 9.995002498750625e-05 9.995002498750625e-05 9.995002498750625e-05 9.995002498750625e-05 9.995002498750625e-05 9.995002498750625e-05 0.9995002498750625 9.995002498750625e-05 9.995002498750625e-05 9.995002498750625e-05 9.995002498750625e-05 0.9995002498750625 9.995002498750625e-05 9.995002498750625e-05 9.995002498750625e-05 9.995002498750625e-05 9.995002498750625e-05 0.9995002498750625 9.995002498750625e-05 9.995002498750625e-05 9.995002498750625e-05 9.995002498750625e-05 9.995002498750625e-05 0.9995002498750625 9.995002498750625e-05 9.995002498750625e-05 9.995002498750625e-05 9.995002498750625e-05 0.9995002498750625 9.995002498750625e-05 9.995002498750625e-05 9.995002498750625e-05 9.995002498750625e-05 9.995002498750625e-05 0.9995002498750625 9.995002498750625e-05 9.995002498750625e-05 9.995002498750625e-05 9.995002498750625e-05 9.995002498750625e-05 0.9995002498750625 9.995002498750625e-05 9.995002498750625e-05 9.995002498750625e-05 9.995002498750625e-05 0.9995002498750625 9.995002498750625e-05 9.995002498750625e-05 9.995002498750625e-05 9.995002498750625e-05 9.995002498750625e-05 0.9995002498750625 9.995002498750625e-05 9.995002498750625e-05 9.995002498750625e-05 9.995002498750625e-05 9.995002498750625e-05 0.9995002498750625 9.995002498750625e-05 9.995002498750625e-05 9.995002498750625e-05 9.995002498750625e-05 0.9995002498750625 9.995002498750625e-05 9.995002498750625e-05 9.995002498750625e-05 9.995002498750625e-05 9.995002498750625e-05 9.995002498750625e-05 9.995002498750625e-05 9.995002498750625e-05 9.995002498750625e-05 9.995002498750625e-05 0.9995002498750625 9.995002498750625e-05 9.995002498750625e-05 9.995002498750625e-05 9.995002498750625e-05 0.9995002498750625 9.995002498750625e-05 9.995002498750625e-05 9.995002498750625e-05 9.995002498750625e-05 9.995002498750625e-05 0.9995002498750625 9.995002498750625e-05 9.995002498750625e-05 9.995002498750625e-05 9.995002498750625e-05 9.995002498750625e-05 0.9995002498750625 9.995002498750625e-05 9.995002498750625e-05 9.995002498750625e-05 9.995002498750625e-05 0.9995002498750625 9.995002498750625e-05 9.995002498750625e-05 9.995002498750625e-05 9.995002498750625e-05 9.995002498750625e-05 0.9995002498750625 9.995002498750625e-05 9.995002498750625e-05 9.995002498750625e-05 9.995002498750625e-05 9.995002498750625e-05 0.9995002498750625 9.995002498750625e-05 9.995002498750625e-05 9.995002498750625e-05 9.995002498750625e-05 0.9995002498750625 9.995002498750625e-05 9.995002498750625e-05 9.995002498750625e-05 9.995002498750625e-05 9.995002498750625e-05 0.9995002498750625 9.995002498750625e-05 9.995002498750625e-05 9.995002498750625e-05 9.995002498750625e-05 9.995002498750625e-05 0.9995002498750625 9.995002498750625e-05 9.995002498750625e-05 9.995002498750625e-05 9.995002498750625e-05 0.9995002498750625 9.995002498750625e-05 9.995002498750625e-05 9.995002498750625e-05 9.995002498750625e-05 9.995002498750625e-05 9.995002498750625e-05 9.995002498750625e-05 9.995002498750625e-05 9.995002498750625e-05 0.9995002498750625 9.995002498750625e-05 9.995002498750625e-05 9.995002498750625e-05 9.995002498750625e-05 9.995002498750625e-05 0.9995002498750625 9.995002498750625e-05 9.995002498750625e-05 9.995002498750625e-05 9.995002498750625e-05 9.995002498750625e-05 0.9995002498750625 9.995002498750625e-05 9.995002498750625e-05 9.995002498750625e-05 9.995002498750625e-05 9.995002498750625e-05 0.9995002498750625 9.995002498750625e-05 9.995002498750625e-05 9.995002498750625e-05 9.995002498750625e-05 0.9995002498750625 9.995002498750625e-05 9.995002498750625e-05 9.995002498750625e-05 9.995002498750625e-05 9.995002498750625e-05 0.9995002498750625 9.995002498750625e-05 9.995002498750625e-05 9.995002498750625e-05 9.995002498750625e-05 9.995002498750625e-05 0.9995002498750625 9.995002498750625e-05 9.995002498750625e-05 9.995002498750625e-05 9.995002498750625e-05 0.9995002498750625 9.995002498750625e-05 9.995002498750625e-05 9.995002498750625e-05 9.995002498750625e-05 9.995002498750625e-05 0.9995002498750625 9.995002498750625e-05 9.995002498750625e-05 9.995002498750625e-05 9.995002498750625e-05 9.995002498750625e-05 0.9995002498750625 9.995002498750625e-05 9.995002498750625e-05 9.995002498750625e-05 9.995002498750625e-05 0.9995002498750625 9.995002498750625e-05 9.995002498750625e-05 9.995002498750625e-05 9.995002498750625e-05 9.995002498750625e-05 9.995002498750625e-05 9.995002498750625e-05 9.995002498750625e-05 0.9995002498750625 9.995002498750625e-05 9.995002498750625e-05 9.995002498750625e-05 9.995002498750625e-05 9.995002498750625e-05 0.9995002498750625 9.995002498750625e-05 9.995002498750625e-05 9.995002498750625e-05 9.995002498750625e-05 9.995002498750625e-05 0.9995002498750625 9.995002498750625e-05 9.995002498750625e-05 9.995002498750625e-05 9.995002498750625e-05 9.995002498750625e-05 0.9995002498750625 9.995002498750625e-05 9.995002498750625e-05 9.995002498750625e-05 9.995002498750625e-05 9.995002498750625e-05 0.9995002498750625 9.995002498750625e-05 9.995002498750625e-05 9.995002498750625e-05 9.995002498750625e-05 9.995002498750625e-05 0.9995002498750625 9.995002498750625e-05 9.995002498750625e-05 9.995002498750625e-05 9.995002498750625e-05 9.995002498750625e-05 0.9995002498750625 9.996001599360256e-05 9.996001599360256e-05 9.996001599360256e-05 9.996001599360256e-05 0.4998000799680128 0.4998000799680128 9.995002498750625e-05 9.995002498750625e-05 9.995002498750625e-05 9.995002498750625e-05 0.9995002498750625 9.995002498750625e-05 9.995002498750625e-05 9.995002498750625e-05 9.995002498750625e-05 9.995002498750625e-05 0.9995002498750625 9.995002498750625e-05 9.996001599360256e-05 9.996001599360256e-05 9.996001599360256e-05 0.4998000799680128 0.4998000799680128 9.996001599360256e-05</probabilities>
		</cpt>
		<cpt id="ngodnt">
			<state id="x_45" />
			<state id="x45_60" />
			<state id="x60_75" />
			<state id="x75_90" />
			<state id="x90_105" />
			<state id="x105_120" />
			<state id="x120_135" />
			<state id="x135_150" />
			<state id="x150_165" />
			<state id="x_165" />
			<parents>forfrugt exptgens mod_nmin</parents>
			<probabilities>9.991008092716556e-05 9.991008092716556e-05 9.991008092716556e-05 9.991008092716556e-05 0.9991008092716556 9.991008092716556e-05 9.991008092716556e-05 9.991008092716556e-05 9.991008092716556e-05 9.991008092716556e-05 9.991008092716556e-05 9.991008092716556e-05 9.991008092716556e-05 0.9991008092716556 9.991008092716556e-05 9.991008092716556e-05 9.991008092716556e-05 9.991008092716556e-05 9.991008092716556e-05 9.991008092716556e-05 9.991008092716556e-05 9.991008092716556e-05 0.9991008092716556 9.991008092716556e-05 9.991008092716556e-05 9.991008092716556e-05 9.991008092716556e-05 9.991008092716556e-05 9.991008092716556e-05 9.991008092716556e-05 9.991008092716556e-05 0.9991008092716556 9.991008092716556e-05 9.991008092716556e-05 9.991008092716556e-05 9.991008092716556e-05 9.991008092716556e-05 9.991008092716556e-05 9.991008092716556e-05 9.991008092716556e-05 0.9991008092716556 9.991008092716556e-05 9.991008092716556e-05 9.991008092716556e-05 9.991008092716556e-05 9.991008092716556e-05 9.991008092716556e-05 9.991008092716556e-05 9.991008092716556e-05 9.991008092716556e-05 0.9991008092716556 9.991008092716556e-05 9.991008092716556e-05 9.991008092716556e-05 9.991008092716556e-05 9.991008092716556e-05 9.991008092716556e-05 9.991008092716556e-05 9.991008092716556e-05 9.991008092716556e-05 9.991008092716556e-05 9.991008092716556e-05 9.991008092716556e-05 9.991008092716556e-05 9.991008092716556e-05 0.9991008092716556 9.991008092716556e-05 9.991008092716556e-05 9.991008092716556e-05 9.991008092716556e-05 9.991008092716556e-05 9.991008092716556e-05 9.991008092716556e-05 9.991008092716556e-05 0.9991008092716556 9.991008092716556e-05 9.991008092716556e-05 9.991008092716556e-05 9.991008092716556e-05 9.991008092716556e-05 9.991008092716556e-05 9.991008092716556e-05 9.991008092716556e-05 0.9991008092716556 9.991008092716556e-05 9.991008092716556e-05 9.991008092716556e-05 9.991008092716556e-05 9.991008092716556e-05 9.991008092716556e-05 9.991008092716556e-05 9.991008092716556e-05 0.9991008092716556 9.991008092716556e-05 9.991008092716556e-05 9.991008092716556e-05 9.991008092716556e-05 9.991008092716556e-05 9.991008092716556e-05 9.991008092716556e-05 9.991008092716556e-05 0.9991008092716556 9.991008092716556e-05 9.991008092716556e-05 9.991008092716556e-05 9.991008092716556e-05 9.991008092716556e-05 9.991008092716556e-05 9.991008092716556e-05 9.991008092716556e-05 0.4996003197442047 0.4996003197442047 9.992006394884094e-05 9.992006394884094e-05 9.992006394884094e-05 9.992006394884094e-05 9.992006394884094e-05 9.992006394884094e-05 9.992006394884094e-05 9.992006394884094e-05 9.991008092716556e-05 9.991008092716556e-05 9.991008092716556e-05 9.991008092716556e-05 9.991008092716556e-05 9.991008092716556e-05 0.9991008092716556 9.991008092716556e-05 9.991008092716556e-05 9.991008092716556e-05 9.991008092716556e-05 9.991008092716556e-05 9.991008092716556e-05 9.991008092716556e-05 9.991008092716556e-05 0.9991008092716556 9.991008092716556e-05 9.991008092716556e-05 9.991008092716556e-05 9.991008092716556e-05 9.991008092716556e-05 9.991008092716556e-05 9.991008092716556e-05 9.991008092716556e-05 0.9991008092716556 9.991008092716556e-05 9.991008092716556e-05 9.991008092716556e-05 9.991008092716556e-05 9.991008092716556e-05 9.991008092716556e-05 9.991008092716556e-05 9.991008092716556e-05 0.9991008092716556 9.991008092716556e-05 9.991008092716556e-05 9.991008092716556e-05 9.991008092716556e-05 9.991008092716556e-05 9.991008092716556e-05 9.991008092716556e-05 9.991008092716556e-05 0.9991008092716556 9.991008092716556e-05 9.991008092716556e-05 9.991008092716556e-05 9.991008092716556e-05 9.991008092716556e-05 9.991008092716556e-05 9.991008092716556e-05 9.991008092716556e-05 0.9991008092716556 9.991008092716556e-05 9.991008092716556e-05 9.991008092716556e-05 9.991008092716556e-05 9.991008092716556e-05 9.991008092716556e-05 9.991008092716556e-05 9.991008092716556e-05 9.991008092716556e-05 9.991008092716556e-05 9.991008092716556e-05 9.991008092716556e-05 9.991008092716556e-05 9.991008092716556e-05 9.991008092716556e-05 0.9991008092716556 9.991008092716556e-05 9.991008092716556e-05 9.991008092716556e-05 9.991008092716556e-05 9.991008092716556e-05 9.991008092716556e-05 9.991008092716556e-05 9.991008092716556e-05 0.9991008092716556 9.991008092716556e-05 9.991008092716556e-05 9.991008092716556e-05 9.991008092716556e-05 9.991008092716556e-05 9.991008092716556e-05 9.991008092716556e-05 9.991008092716556e-05 0.9991008092716556 9.991008092716556e-05 9.991008092716556e-05 9.991008092716556e-05 9.991008092716556e-05 9.991008092716556e-05 9.991008092716556e-05 9.991008092716556e-05 9.991008092716556e-05 0.9991008092716556 9.991008092716556e-05 9.991008092716556e-05 9.991008092716556e-05 9.991008092716556e-05 9.991008092716556e-05 9.991008092716556e-05 9.991008092716556e-05 9.991008092716556e-05 0.9991008092716556 9.991008092716556e-05 9.991008092716556e-05 9.991008092716556e-05 9.991008092716556e-05 9.991008092716556e-05 9.991008092716556e-05 9.991008092716556e-05 9.991008092716556e-05 0.9991008092716556 9.991008092716556e-05 9.991008092716556e-05 9.991008092716556e-05 9.991008092716556e-05 9.991008092716556e-05 9.991008092716556e-05 9.991008092716556e-05 9.991008092716556e-05 9.991008092716556e-05 9.991008092716556e-05 9.991008092716556e-05 9.991008092716556e-05 9.991008092716556e-05 9.991008092716556e-05 0.9991008092716556 9.991008092716556e-05 9.991008092716556e-05 9.991008092716556e-05 9.991008092716556e-05 9.991008092716556e-05 9.991008092716556e-05 9.991008092716556e-05 9.991008092716556e-05 0.9991008092716556 9.991008092716556e-05 9.991008092716556e-05 9.991008092716556e-05 9.991008092716556e-05 9.991008092716556e-05 9.991008092716556e-05 9.991008092716556e-05 9.991008092716556e-05 0.9991008092716556 9.991008092716556e-05 9.991008092716556e-05 9.991008092716556e-05 9.991008092716556e-05 9.991008092716556e-05 9.991008092716556e-05 9.991008092716556e-05 9.991008092716556e-05 0.9991008092716556 9.991008092716556e-05 9.991008092716556e-05 9.991008092716556e-05 9.991008092716556e-05 9.991008092716556e-05 9.991008092716556e-05 9.991008092716556e-05 9.991008092716556e-05 0.9991008092716556 9.991008092716556e-05 9.991008092716556e-05 9.991008092716556e-05 9.991008092716556e-05 9.991008092716556e-05 9.991008092716556e-05 9.992006394884094e-05 9.992006394884094e-05 0.4996003197442047 0.4996003197442047 9.992006394884094e-05 9.992006394884094e-05 9.992006394884094e-05 9.992006394884094e-05 9.992006394884094e-05 9.992006394884094e-05 9.991008092716556e-05 9.991008092716556e-05 9.991008092716556e-05 9.991008092716556e-05 9.991008092716556e-05 9.991008092716556e-05 9.991008092716556e-05 9.991008092716556e-05 0.9991008092716556 9.991008092716556e-05 9.991008092716556e-05 9.991008092716556e-05 9.991008092716556e-05 9.991008092716556e-05 9.991008092716556e-05 9.991008092716556e-05 9.991008092716556e-05 0.9991008092716556 9.991008092716556e-05 9.991008092716556e-05 9.991008092716556e-05 9.991008092716556e-05 9.991008092716556e-05 9.991008092716556e-05 9.991008092716556e-05 9.991008092716556e-05 0.9991008092716556 9.991008092716556e-05 9.991008092716556e-05 9.991008092716556e-05 9.991008092716556e-05 9.991008092716556e-05 9.991008092716556e-05 9.991008092716556e-05 9.991008092716556e-05 0.9991008092716556 9.991008092716556e-05 9.991008092716556e-05 9.991008092716556e-05 9.991008092716556e-05 9.991008092716556e-05 9.991008092716556e-05 9.991008092716556e-05 9.991008092716556e-05 0.9991008092716556 9.991008092716556e-05 9.991008092716556e-05 9.991008092716556e-05 9.991008092716556e-05 9.991008092716556e-05 9.992006394884094e-05 9.992006394884094e-05 9.992006394884094e-05 0.4996003197442047 0.4996003197442047 9.992006394884094e-05 9.992006394884094e-05 9.992006394884094e-05 9.992006394884094e-05 9.992006394884094e-05 9.991008092716556e-05 9.991008092716556e-05 9.991008092716556e-05 9.991008092716556e-05 0.9991008092716556 9.991008092716556e-05 9.991008092716556e-05 9.991008092716556e-05 9.991008092716556e-05 9.991008092716556e-05 9.991008092716556e-05 9.991008092716556e-05 9.991008092716556e-05 0.9991008092716556 9.991008092716556e-05 9.991008092716556e-05 9.991008092716556e-05 9.991008092716556e-05 9.991008092716556e-05 9.991008092716556e-05 9.991008092716556e-05 9.991008092716556e-05 0.9991008092716556 9.991008092716556e-05 9.991008092716556e-05 9.991008092716556e-05 9.991008092716556e-05 9.991008092716556e-05 9.991008092716556e-05 9.991008092716556e-05 9.991008092716556e-05 0.9991008092716556 9.991008092716556e-05 9.991008092716556e-05 9.991008092716556e-05 9.991008092716556e-05 9.991008092716556e-05 9.991008092716556e-05 9.991008092716556e-05 9.991008092716556e-05 0.9991008092716556 9.991008092716556e-05 9.991008092716556e-05 9.991008092716556e-05 9.991008092716556e-05 9.991008092716556e-05 9.991008092716556e-05 9.991008092716556e-05 9.991008092716556e-05 9.991008092716556e-05 0.9991008092716556 9.991008092716556e-05 9.991008092716556e-05 9.991008092716556e-05 9.991008092716556e-05 9.991008092716556e-05 9.991008092716556e-05 9.991008092716556e-05 9.991008092716556e-05 9.991008092716556e-05 9.991008092716556e-05 9.991008092716556e-05 9.991008092716556e-05 9.991008092716556e-05 9.991008092716556e-05 0.9991008092716556 9.991008092716556e-05 9.991008092716556e-05 9.991008092716556e-05 9.991008092716556e-05 9.991008092716556e-05 9.991008092716556e-05 9.991008092716556e-05 9.991008092716556e-05 0.9991008092716556 9.991008092716556e-05 9.991008092716556e-05 9.991008092716556e-05 9.991008092716556e-05 9.991008092716556e-05 9.991008092716556e-05 9.991008092716556e-05 9.991008092716556e-05 0.9991008092716556 9.991008092716556e-05 9.991008092716556e-05 9.991008092716556e-05 9.991008092716556e-05 9.991008092716556e-05 9.991008092716556e-05 9.991008092716556e-05 9.991008092716556e-05 0.9991008092716556 9.991008092716556e-05 9.991008092716556e-05 9.991008092716556e-05 9.991008092716556e-05 9.991008092716556e-05 9.991008092716556e-05 9.991008092716556e-05 9.991008092716556e-05 0.9991008092716556 9.991008092716556e-05 9.991008092716556e-05 9.991008092716556e-05 9.991008092716556e-05 9.991008092716556e-05 9.991008092716556e-05 9.991008092716556e-05 9.991008092716556e-05 0.9991008092716556 9.991008092716556e-05 9.991008092716556e-05 9.991008092716556e-05 9.991008092716556e-05 9.991008092716556e-05 9.991008092716556e-05 9.991008092716556e-05 9.991008092716556e-05 9.991008092716556e-05 9.991008092716556e-05 9.991008092716556e-05 9.991008092716556e-05 9.991008092716556e-05 9.991008092716556e-05 0.9991008092716556 9.991008092716556e-05 9.991008092716556e-05 9.991008092716556e-05 9.991008092716556e-05 9.991008092716556e-05 9.991008092716556e-05 9.991008092716556e-05 9.991008092716556e-05 0.9991008092716556 9.991008092716556e-05 9.991008092716556e-05 9.991008092716556e-05 9.991008092716556e-05 9.991008092716556e-05 9.991008092716556e-05 9.991008092716556e-05 9.991008092716556e-05 0.9991008092716556 9.991008092716556e-05 9.991008092716556e-05 9.991008092716556e-05 9.991008092716556e-05 9.991008092716556e-05 9.991008092716556e-05 9.991008092716556e-05 9.991008092716556e-05 0.9991008092716556 9.991008092716556e-05 9.991008092716556e-05 9.991008092716556e-05 9.991008092716556e-05 9.991008092716556e-05 9.991008092716556e-05 9.991008092716556e-05 9.991008092716556e-05 0.9991008092716556 9.991008092716556e-05 9.991008092716556e-05 9.991008092716556e-05 9.991008092716556e-05 9.991008092716556e-05 9.991008092716556e-05 9.991008092716556e-05 9.991008092716556e-05 0.4996003197442047 0.4996003197442047 9.992006394884094e-05 9.992006394884094e-05 9.992006394884094e-05 9.992006394884094e-05 9.992006394884094e-05 9.992006394884094e-05 9.992006394884094e-05 9.992006394884094e-05 9.991008092716556e-05 9.991008092716556e-05 9.991008092716556e-05 9.991008092716556e-05 9.991008092716556e-05 9.991008092716556e-05 0.9991008092716556 9.991008092716556e-05 9.991008092716556e-05 9.991008092716556e-05 9.991008092716556e-05 9.991008092716556e-05 9.991008092716556e-05 9.991008092716556e-05 9.991008092716556e-05 0.9991008092716556 9.991008092716556e-05 9.991008092716556e-05 9.991008092716556e-05 9.991008092716556e-05 9.991008092716556e-05 9.991008092716556e-05 9.991008092716556e-05 9.991008092716556e-05 0.9991008092716556 9.991008092716556e-05 9.991008092716556e-05 9.991008092716556e-05 9.991008092716556e-05 9.991008092716556e-05 9.991008092716556e-05 9.991008092716556e-05 9.991008092716556e-05 0.9991008092716556 9.991008092716556e-05 9.991008092716556e-05 9.991008092716556e-05 9.991008092716556e-05 9.991008092716556e-05 9.991008092716556e-05 9.991008092716556e-05 9.991008092716556e-05 0.9991008092716556 9.991008092716556e-05 9.991008092716556e-05 9.991008092716556e-05 9.991008092716556e-05 9.991008092716556e-05 9.991008092716556e-05 9.991008092716556e-05 9.991008092716556e-05 0.9991008092716556 9.991008092716556e-05 9.991008092716556e-05 9.991008092716556e-05 9.991008092716556e-05 9.991008092716556e-05 9.991008092716556e-05 9.991008092716556e-05 9.991008092716556e-05 9.991008092716556e-05 9.991008092716556e-05 9.991008092716556e-05 9.991008092716556e-05 9.991008092716556e-05 9.991008092716556e-05 9.991008092716556e-05 0.9991008092716556 9.991008092716556e-05 9.991008092716556e-05 9.991008092716556e-05 9.991008092716556e-05 9.991008092716556e-05 9.991008092716556e-05 9.991008092716556e-05 9.991008092716556e-05 0.9991008092716556 9.991008092716556e-05 9.991008092716556e-05 9.991008092716556e-05 9.991008092716556e-05 9.991008092716556e-05 9.991008092716556e-05 9.991008092716556e-05 9.991008092716556e-05 0.9991008092716556 9.991008092716556e-05 9.991008092716556e-05 9.991008092716556e-05 9.991008092716556e-05 9.991008092716556e-05 9.991008092716556e-05 9.991008092716556e-05 9.991008092716556e-05 0.9991008092716556 9.991008092716556e-05 9.991008092716556e-05 9.991008092716556e-05 9.991008092716556e-05 9.991008092716556e-05 9.991008092716556e-05 9.991008092716556e-05 9.991008092716556e-05 0.9991008092716556 9.991008092716556e-05 9.991008092716556e-05 9.991008092716556e-05 9.991008092716556e-05 9.991008092716556e-05 9.991008092716556e-05 9.991008092716556e-05 9.991008092716556e-05 0.9991008092716556 9.991008092716556e-05 9.991008092716556e-05 9.991008092716556e-05 9.991008092716556e-05 9.991008092716556e-05 9.991008092716556e-05 9.991008092716556e-05 9.991008092716556e-05 9.991008092716556e-05 9.991008092716556e-05 9.991008092716556e-05 9.991008092716556e-05 9.991008092716556e-05 9.991008092716556e-05 9.991008092716556e-05 0.9991008092716556 9.991008092716556e-05 9.991008092716556e-05 9.991008092716556e-05 9.991008092716556e-05 9.991008092716556e-05 9.991008092716556e-05 9.991008092716556e-05 9.991008092716556e-05 0.9991008092716556 9.991008092716556e-05 9.991008092716556e-05 9.991008092716556e-05 9.991008092716556e-05 9.991008092716556e-05 9.991008092716556e-05 9.991008092716556e-05 9.991008092716556e-05 0.9991008092716556 9.991008092716556e-05 9.991008092716556e-05 9.991008092716556e-05 9.991008092716556e-05 9.991008092716556e-05 9.991008092716556e-05 9.991008092716556e-05 9.991008092716556e-05 0.9991008092716556 9.991008092716556e-05 9.991008092716556e-05 9.991008092716556e-05 9.991008092716556e-05 9.991008092716556e-05 9.991008092716556e-05 9.991008092716556e-05 9.991008092716556e-05 0.9991008092716556 9.991008092716556e-05 9.991008092716556e-05 9.991008092716556e-05 9.991008092716556e-05 9.991008092716556e-05 9.991008092716556e-05 9.991008092716556e-05 9.991008092716556e-05 0.9991008092716556 9.991008092716556e-05 9.991008092716556e-05 9.991008092716556e-05 9.991008092716556e-05 9.991008092716556e-05 9.991008092716556e-05 9.991008092716556e-05 9.991008092716556e-05 9.991008092716556e-05 0.9991008092716556 9.991008092716556e-05 9.991008092716556e-05 9.991008092716556e-05 9.991008092716556e-05 9.991008092716556e-05 9.991008092716556e-05 9.991008092716556e-05 9.991008092716556e-05 0.9991008092716556 9.991008092716556e-05 9.991008092716556e-05 9.991008092716556e-05 9.991008092716556e-05 9.991008092716556e-05 9.991008092716556e-05 9.991008092716556e-05 9.991008092716556e-05 0.9991008092716556 9.991008092716556e-05 9.991008092716556e-05 9.991008092716556e-05 9.991008092716556e-05 9.991008092716556e-05 9.991008092716556e-05 9.991008092716556e-05 9.991008092716556e-05 0.9991008092716556 9.991008092716556e-05 9.991008092716556e-05 9.991008092716556e-05 9.991008092716556e-05 9.991008092716556e-05 9.991008092716556e-05 9.991008092716556e-05 9.991008092716556e-05 9.991008092716556e-05 0.9991008092716556 9.991008092716556e-05 9.991008092716556e-05 9.991008092716556e-05 9.991008092716556e-05 9.991008092716556e-05 9.991008092716556e-05 9.991008092716556e-05 9.991008092716556e-05 9.991008092716556e-05 0.9991008092716556 9.991008092716556e-05 9.991008092716556e-05 9.991008092716556e-05 9.991008092716556e-05 9.991008092716556e-05 9.991008092716556e-05 9.991008092716556e-05 9.991008092716556e-05 9.991008092716556e-05 9.991008092716556e-05 9.991008092716556e-05 9.991008092716556e-05 9.991008092716556e-05 0.9991008092716556 9.991008092716556e-05 9.991008092716556e-05 9.991008092716556e-05 9.991008092716556e-05 9.991008092716556e-05 9.991008092716556e-05 9.991008092716556e-05 9.991008092716556e-05 0.9991008092716556 9.991008092716556e-05 9.991008092716556e-05 9.991008092716556e-05 9.991008092716556e-05 9.991008092716556e-05 9.991008092716556e-05 9.991008092716556e-05 9.991008092716556e-05 0.9991008092716556 9.991008092716556e-05 9.991008092716556e-05 9.991008092716556e-05 9.991008092716556e-05 9.991008092716556e-05 9.991008092716556e-05 9.991008092716556e-05 9.991008092716556e-05 0.9991008092716556 9.991008092716556e-05 9.991008092716556e-05 9.991008092716556e-05 9.991008092716556e-05 9.991008092716556e-05 9.991008092716556e-05 9.991008092716556e-05 9.991008092716556e-05 0.9991008092716556 9.991008092716556e-05 9.991008092716556e-05 9.991008092716556e-05 9.991008092716556e-05 9.991008092716556e-05 9.991008092716556e-05 9.991008092716556e-05 9.991008092716556e-05 9.991008092716556e-05 0.9991008092716556 9.991008092716556e-05 9.991008092716556e-05 9.991008092716556e-05 9.991008092716556e-05 9.991008092716556e-05 9.991008092716556e-05 9.991008092716556e-05 9.991008092716556e-05 9.991008092716556e-05 9.991008092716556e-05 9.991008092716556e-05 9.991008092716556e-05 9.991008092716556e-05 9.991008092716556e-05 0.9991008092716556 9.991008092716556e-05 9.991008092716556e-05 9.991008092716556e-05 9.991008092716556e-05 9.991008092716556e-05 9.991008092716556e-05 9.991008092716556e-05 9.991008092716556e-05 0.9991008092716556 9.991008092716556e-05 9.991008092716556e-05 9.991008092716556e-05 9.991008092716556e-05 9.991008092716556e-05 9.991008092716556e-05 9.991008092716556e-05 9.991008092716556e-05 0.9991008092716556 9.991008092716556e-05 9.991008092716556e-05 9.991008092716556e-05 9.991008092716556e-05 9.991008092716556e-05 9.991008092716556e-05 9.991008092716556e-05 9.991008092716556e-05 0.9991008092716556 9.991008092716556e-05 9.991008092716556e-05 9.991008092716556e-05 9.991008092716556e-05 9.991008092716556e-05 9.991008092716556e-05 9.991008092716556e-05 9.991008092716556e-05 0.9991008092716556 9.991008092716556e-05 9.991008092716556e-05 9.991008092716556e-05 9.991008092716556e-05 9.991008092716556e-05 9.991008092716556e-05 9.991008092716556e-05 9.991008092716556e-05 0.9991008092716556 9.991008092716556e-05 9.991008092716556e-05 9.991008092716556e-05 9.991008092716556e-05 9.991008092716556e-05 9.991008092716556e-05 9.991008092716556e-05 9.991008092716556e-05 9.991008092716556e-05 9.991008092716556e-05 9.991008092716556e-05 9.991008092716556e-05 9.991008092716556e-05 9.991008092716556e-05 9.991008092716556e-05 0.9991008092716556 9.991008092716556e-05 9.991008092716556e-05 9.991008092716556e-05 9.991008092716556e-05 9.991008092716556e-05 9.991008092716556e-05 9.991008092716556e-05 9.991008092716556e-05 0.9991008092716556 9.991008092716556e-05 9.991008092716556e-05 9.991008092716556e-05 9.991008092716556e-05 9.991008092716556e-05 9.991008092716556e-05 9.991008092716556e-05 9.991008092716556e-05 0.9991008092716556 9.991008092716556e-05 9.991008092716556e-05 9.991008092716556e-05 9.991008092716556e-05 9.991008092716556e-05 9.991008092716556e-05 9.991008092716556e-05 9.991008092716556e-05 0.9991008092716556 9.991008092716556e-05 9.991008092716556e-05 9.991008092716556e-05 9.991008092716556e-05 9.991008092716556e-05 9.991008092716556e-05 9.991008092716556e-05 9.991008092716556e-05 0.9991008092716556 9.991008092716556e-05 9.991008092716556e-05 9.991008092716556e-05 9.991008092716556e-05 9.991008092716556e-05 9.991008092716556e-05 9.991008092716556e-05 9.991008092716556e-05 0.9991008092716556 9.991008092716556e-05 9.991008092716556e-05 9.991008092716556e-05 9.991008092716556e-05 9.991008092716556e-05 9.991008092716556e-05 9.991008092716556e-05 9.991008092716556e-05 9.991008092716556e-05 9.991008092716556e-05 9.991008092716556e-05 9.991008092716556e-05 9.991008092716556e-05 9.991008092716556e-05 0.9991008092716556 9.991008092716556e-05 9.991008092716556e-05 9.991008092716556e-05 9.991008092716556e-05 9.991008092716556e-05 9.991008092716556e-05 9.991008092716556e-05 9.991008092716556e-05 0.9991008092716556 9.991008092716556e-05 9.991008092716556e-05 9.991008092716556e-05 9.991008092716556e-05 9.991008092716556e-05 9.991008092716556e-05 9.991008092716556e-05 9.991008092716556e-05 0.9991008092716556 9.991008092716556e-05 9.991008092716556e-05 9.991008092716556e-05 9.991008092716556e-05 9.991008092716556e-05 9.991008092716556e-05 9.991008092716556e-05 9.991008092716556e-05 0.9991008092716556 9.991008092716556e-05 9.991008092716556e-05 9.991008092716556e-05 9.991008092716556e-05 9.991008092716556e-05 9.991008092716556e-05 9.991008092716556e-05 9.991008092716556e-05 0.9991008092716556 9.991008092716556e-05 9.991008092716556e-05 9.991008092716556e-05 9.991008092716556e-05 9.991008092716556e-05 9.991008092716556e-05 9.991008092716556e-05 9.992006394884094e-05 0.4996003197442047 0.4996003197442047 9.992006394884094e-05 9.992006394884094e-05 9.992006394884094e-05 9.992006394884094e-05 9.992006394884094e-05 9.992006394884094e-05 9.992006394884094e-05 9.991008092716556e-05 9.991008092716556e-05 9.991008092716556e-05 9.991008092716556e-05 9.991008092716556e-05 9.991008092716556e-05 9.991008092716556e-05 0.9991008092716556 9.991008092716556e-05 9.991008092716556e-05 9.991008092716556e-05 9.991008092716556e-05 9.991008092716556e-05 9.991008092716556e-05 9.991008092716556e-05 9.991008092716556e-05 0.9991008092716556 9.991008092716556e-05 9.991008092716556e-05 9.991008092716556e-05 9.991008092716556e-05 9.991008092716556e-05 9.991008092716556e-05 9.991008092716556e-05 9.991008092716556e-05 0.9991008092716556 9.991008092716556e-05 9.991008092716556e-05 9.991008092716556e-05 9.991008092716556e-05 9.991008092716556e-05 9.991008092716556e-05 9.991008092716556e-05 9.991008092716556e-05 0.9991008092716556 9.991008092716556e-05 9.991008092716556e-05 9.991008092716556e-05 9.991008092716556e-05 9.991008092716556e-05 9.991008092716556e-05 9.991008092716556e-05 9.991008092716556e-05 0.9991008092716556 9.991008092716556e-05 9.991008092716556e-05 9.991008092716556e-05 9.991008092716556e-05 9.991008092716556e-05 9.991008092716556e-05 9.992006394884094e-05 9.992006394884094e-05 0.4996003197442047 0.4996003197442047 9.992006394884094e-05 9.992006394884094e-05 9.992006394884094e-05 9.992006394884094e-05 9.992006394884094e-05 9.992006394884094e-05 9.991008092716556e-05 9.991008092716556e-05 0.9991008092716556 9.991008092716556e-05 9.991008092716556e-05 9.991008092716556e-05 9.991008092716556e-05 9.991008092716556e-05 9.991008092716556e-05 9.991008092716556e-05 9.991008092716556e-05 0.9991008092716556 9.991008092716556e-05 9.991008092716556e-05 9.991008092716556e-05 9.991008092716556e-05 9.991008092716556e-05 9.991008092716556e-05 9.991008092716556e-05 9.991008092716556e-05 0.9991008092716556 9.991008092716556e-05 9.991008092716556e-05 9.991008092716556e-05 9.991008092716556e-05 9.991008092716556e-05 9.991008092716556e-05 9.991008092716556e-05 9.991008092716556e-05 9.991008092716556e-05 0.9991008092716556 9.991008092716556e-05 9.991008092716556e-05 9.991008092716556e-05 9.991008092716556e-05 9.991008092716556e-05 9.991008092716556e-05 9.991008092716556e-05 9.991008092716556e-05 9.991008092716556e-05 0.9991008092716556 9.991008092716556e-05 9.991008092716556e-05 9.991008092716556e-05 9.991008092716556e-05 9.991008092716556e-05 9.991008092716556e-05 9.991008092716556e-05 9.991008092716556e-05 9.991008092716556e-05 0.9991008092716556 9.991008092716556e-05 9.991008092716556e-05 9.991008092716556e-05 9.991008092716556e-05 9.991008092716556e-05 9.991008092716556e-05 9.991008092716556e-05 9.991008092716556e-05 9.991008092716556e-05 9.991008092716556e-05 9.991008092716556e-05 9.991008092716556e-05 0.9991008092716556 9.991008092716556e-05 9.991008092716556e-05 9.991008092716556e-05 9.991008092716556e-05 9.991008092716556e-05 9.991008092716556e-05 9.991008092716556e-05 9.991008092716556e-05 0.9991008092716556 9.991008092716556e-05 9.991008092716556e-05 9.991008092716556e-05 9.991008092716556e-05 9.991008092716556e-05 9.991008092716556e-05 9.991008092716556e-05 9.991008092716556e-05 0.9991008092716556 9.991008092716556e-05 9.991008092716556e-05 9.991008092716556e-05 9.991008092716556e-05 9.991008092716556e-05 9.991008092716556e-05 9.991008092716556e-05 9.991008092716556e-05 0.9991008092716556 9.991008092716556e-05 9.991008092716556e-05 9.991008092716556e-05 9.991008092716556e-05 9.991008092716556e-05 9.991008092716556e-05 9.991008092716556e-05 9.991008092716556e-05 9.991008092716556e-05 0.9991008092716556 9.991008092716556e-05 9.991008092716556e-05 9.991008092716556e-05 9.991008092716556e-05 9.991008092716556e-05 9.991008092716556e-05 9.991008092716556e-05 9.991008092716556e-05 9.991008092716556e-05 0.9991008092716556 9.991008092716556e-05 9.991008092716556e-05 9.991008092716556e-05 9.991008092716556e-05 9.991008092716556e-05 9.991008092716556e-05 9.991008092716556e-05 9.991008092716556e-05 9.991008092716556e-05 9.991008092716556e-05 9.991008092716556e-05 9.991008092716556e-05 9.991008092716556e-05 0.9991008092716556 9.991008092716556e-05 9.991008092716556e-05 9.991008092716556e-05 9.991008092716556e-05 9.991008092716556e-05 9.991008092716556e-05 9.991008092716556e-05 9.991008092716556e-05 0.9991008092716556 9.991008092716556e-05 9.991008092716556e-05 9.991008092716556e-05 9.991008092716556e-05 9.991008092716556e-05 9.991008092716556e-05 9.991008092716556e-05 9.991008092716556e-05 0.9991008092716556 9.991008092716556e-05 9.991008092716556e-05 9.991008092716556e-05 9.991008092716556e-05 9.991008092716556e-05 9.991008092716556e-05 9.991008092716556e-05 9.991008092716556e-05 0.9991008092716556 9.991008092716556e-05 9.991008092716556e-05 9.991008092716556e-05 9.991008092716556e-05 9.991008092716556e-05 9.991008092716556e-05 9.991008092716556e-05 9.991008092716556e-05 0.9991008092716556 9.991008092716556e-05 9.991008092716556e-05 9.991008092716556e-05 9.991008092716556e-05 9.991008092716556e-05 9.991008092716556e-05 9.991008092716556e-05 9.991008092716556e-05 9.991008092716556e-05 0.9991008092716556 9.991008092716556e-05 9.991008092716556e-05 9.991008092716556e-05 9.991008092716556e-05 9.991008092716556e-05 9.991008092716556e-05 9.991008092716556e-05 9.991008092716556e-05 9.991008092716556e-05 9.991008092716556e-05 9.991008092716556e-05 9.991008092716556e-05 9.991008092716556e-05 9.991008092716556e-05 0.9991008092716556 9.991008092716556e-05 9.991008092716556e-05 9.991008092716556e-05 9.991008092716556e-05 9.991008092716556e-05 9.991008092716556e-05 9.991008092716556e-05 9.991008092716556e-05 0.9991008092716556 9.991008092716556e-05 9.991008092716556e-05 9.991008092716556e-05 9.991008092716556e-05 9.991008092716556e-05 9.991008092716556e-05 9.991008092716556e-05 9.991008092716556e-05 0.9991008092716556 9.991008092716556e-05 9.991008092716556e-05 9.991008092716556e-05 9.991008092716556e-05 9.991008092716556e-05 9.991008092716556e-05 9.991008092716556e-05 9.991008092716556e-05 0.9991008092716556 9.991008092716556e-05 9.991008092716556e-05 9.991008092716556e-05 9.991008092716556e-05 9.991008092716556e-05 9.991008092716556e-05 9.991008092716556e-05 9.991008092716556e-05 0.9991008092716556 9.991008092716556e-05 9.991008092716556e-05 9.991008092716556e-05 9.991008092716556e-05 9.991008092716556e-05 9.991008092716556e-05 9.991008092716556e-05 9.991008092716556e-05 0.9991008092716556 9.991008092716556e-05 9.991008092716556e-05 9.991008092716556e-05 9.991008092716556e-05 9.991008092716556e-05 9.991008092716556e-05 9.991008092716556e-05 9.991008092716556e-05 9.991008092716556e-05 9.991008092716556e-05 9.991008092716556e-05 9.991008092716556e-05 9.991008092716556e-05 9.991008092716556e-05 0.9991008092716556 9.991008092716556e-05 9.991008092716556e-05 9.991008092716556e-05 9.991008092716556e-05 9.991008092716556e-05 9.991008092716556e-05 9.991008092716556e-05 9.991008092716556e-05 0.9991008092716556 9.991008092716556e-05 9.991008092716556e-05 9.991008092716556e-05 9.991008092716556e-05 9.991008092716556e-05 9.991008092716556e-05 9.991008092716556e-05 9.991008092716556e-05 0.9991008092716556 9.991008092716556e-05 9.991008092716556e-05 9.991008092716556e-05 9.991008092716556e-05 9.991008092716556e-05 9.991008092716556e-05 9.991008092716556e-05 9.991008092716556e-05 0.9991008092716556 9.991008092716556e-05 9.991008092716556e-05 9.991008092716556e-05 9.991008092716556e-05 9.991008092716556e-05 9.991008092716556e-05 9.991008092716556e-05 9.991008092716556e-05 0.9991008092716556 9.991008092716556e-05 9.991008092716556e-05 9.991008092716556e-05 9.991008092716556e-05 9.991008092716556e-05 9.991008092716556e-05 9.991008092716556e-05 9.991008092716556e-05 0.4996003197442047 0.4996003197442047 9.992006394884094e-05 9.992006394884094e-05 9.992006394884094e-05 9.992006394884094e-05 9.992006394884094e-05 9.992006394884094e-05 9.992006394884094e-05 9.992006394884094e-05 9.991008092716556e-05 9.991008092716556e-05 9.991008092716556e-05 9.991008092716556e-05 9.991008092716556e-05 9.991008092716556e-05 0.9991008092716556 9.991008092716556e-05 9.991008092716556e-05 9.991008092716556e-05 9.991008092716556e-05 9.991008092716556e-05 9.991008092716556e-05 9.991008092716556e-05 9.991008092716556e-05 0.9991008092716556 9.991008092716556e-05 9.991008092716556e-05 9.991008092716556e-05 9.991008092716556e-05 9.991008092716556e-05 9.991008092716556e-05 9.991008092716556e-05 9.991008092716556e-05 0.9991008092716556 9.991008092716556e-05 9.991008092716556e-05 9.991008092716556e-05 9.991008092716556e-05 9.991008092716556e-05 9.991008092716556e-05 9.991008092716556e-05 9.991008092716556e-05 0.9991008092716556 9.991008092716556e-05 9.991008092716556e-05 9.991008092716556e-05 9.991008092716556e-05 9.991008092716556e-05 9.991008092716556e-05 9.991008092716556e-05 9.991008092716556e-05 0.9991008092716556 9.991008092716556e-05 9.991008092716556e-05 9.991008092716556e-05 9.991008092716556e-05 9.991008092716556e-05 9.991008092716556e-05 9.991008092716556e-05 9.992006394884094e-05 0.4996003197442047 0.4996003197442047 9.992006394884094e-05 9.992006394884094e-05 9.992006394884094e-05 9.992006394884094e-05 9.992006394884094e-05 9.992006394884094e-05 9.992006394884094e-05 9.991008092716556e-05 9.991008092716556e-05 9.991008092716556e-05 9.991008092716556e-05 0.9991008092716556 9.991008092716556e-05 9.991008092716556e-05 9.991008092716556e-05 9.991008092716556e-05 9.991008092716556e-05 9.991008092716556e-05 9.991008092716556e-05 9.991008092716556e-05 0.9991008092716556 9.991008092716556e-05 9.991008092716556e-05 9.991008092716556e-05 9.991008092716556e-05 9.991008092716556e-05 9.991008092716556e-05 9.991008092716556e-05 9.991008092716556e-05 0.9991008092716556 9.991008092716556e-05 9.991008092716556e-05 9.991008092716556e-05 9.991008092716556e-05 9.991008092716556e-05 9.991008092716556e-05 9.991008092716556e-05 9.991008092716556e-05 0.9991008092716556 9.991008092716556e-05 9.991008092716556e-05 9.991008092716556e-05 9.991008092716556e-05 9.991008092716556e-05 9.991008092716556e-05 9.991008092716556e-05 9.991008092716556e-05 0.9991008092716556 9.991008092716556e-05 9.991008092716556e-05 9.991008092716556e-05 9.991008092716556e-05 9.991008092716556e-05 9.991008092716556e-05 9.991008092716556e-05 9.991008092716556e-05 9.991008092716556e-05 0.9991008092716556 9.991008092716556e-05 9.991008092716556e-05 9.991008092716556e-05 9.991008092716556e-05 9.991008092716556e-05 9.991008092716556e-05 9.991008092716556e-05 9.991008092716556e-05 9.991008092716556e-05 9.991008092716556e-05 9.991008092716556e-05 9.991008092716556e-05 9.991008092716556e-05 9.991008092716556e-05 0.9991008092716556 9.991008092716556e-05 9.991008092716556e-05 9.991008092716556e-05 9.991008092716556e-05 9.991008092716556e-05 9.991008092716556e-05 9.991008092716556e-05 9.991008092716556e-05 0.9991008092716556 9.991008092716556e-05 9.991008092716556e-05 9.991008092716556e-05 9.991008092716556e-05 9.991008092716556e-05 9.991008092716556e-05 9.991008092716556e-05 9.991008092716556e-05 0.9991008092716556 9.991008092716556e-05 9.991008092716556e-05 9.991008092716556e-05 9.991008092716556e-05 9.991008092716556e-05 9.991008092716556e-05 9.991008092716556e-05 9.991008092716556e-05 0.9991008092716556 9.991008092716556e-05 9.991008092716556e-05 9.991008092716556e-05 9.991008092716556e-05 9.991008092716556e-05 9.991008092716556e-05 9.991008092716556e-05 9.991008092716556e-05 0.9991008092716556 9.991008092716556e-05 9.991008092716556e-05 9.991008092716556e-05 9.991008092716556e-05 9.991008092716556e-05 9.991008092716556e-05 9.991008092716556e-05 9.991008092716556e-05 0.9991008092716556 9.991008092716556e-05 9.991008092716556e-05 9.991008092716556e-05 9.991008092716556e-05 9.991008092716556e-05 9.991008092716556e-05 9.991008092716556e-05 9.991008092716556e-05 9.991008092716556e-05 9.991008092716556e-05 9.991008092716556e-05 9.991008092716556e-05 9.991008092716556e-05 9.991008092716556e-05 0.9991008092716556 9.991008092716556e-05 9.991008092716556e-05 9.991008092716556e-05 9.991008092716556e-05 9.991008092716556e-05 9.991008092716556e-05 9.991008092716556e-05 9.991008092716556e-05 0.9991008092716556 9.991008092716556e-05 9.991008092716556e-05 9.991008092716556e-05 9.991008092716556e-05 9.991008092716556e-05 9.991008092716556e-05 9.991008092716556e-05 9.991008092716556e-05 0.9991008092716556 9.991008092716556e-05 9.991008092716556e-05 9.991008092716556e-05 9.991008092716556e-05 9.991008092716556e-05 9.991008092716556e-05 9.991008092716556e-05 9.991008092716556e-05 0.9991008092716556 9.991008092716556e-05 9.991008092716556e-05 9.991008092716556e-05 9.991008092716556e-05 9.991008092716556e-05 9.991008092716556e-05 9.991008092716556e-05 9.991008092716556e-05 0.9991008092716556 9.991008092716556e-05 9.991008092716556e-05 9.991008092716556e-05 9.991008092716556e-05 9.991008092716556e-05 9.991008092716556e-05 9.991008092716556e-05 9.991008092716556e-05 0.4996003197442047 0.4996003197442047 9.992006394884094e-05 9.992006394884094e-05 9.992006394884094e-05 9.992006394884094e-05 9.992006394884094e-05 9.992006394884094e-05 9.992006394884094e-05 9.992006394884094e-05 9.991008092716556e-05 9.991008092716556e-05 9.991008092716556e-05 9.991008092716556e-05 9.991008092716556e-05 9.991008092716556e-05 0.9991008092716556 9.991008092716556e-05 9.991008092716556e-05 9.991008092716556e-05 9.991008092716556e-05 9.991008092716556e-05 9.991008092716556e-05 9.991008092716556e-05 9.991008092716556e-05 0.9991008092716556 9.991008092716556e-05 9.991008092716556e-05 9.991008092716556e-05 9.991008092716556e-05 9.991008092716556e-05 9.991008092716556e-05 9.991008092716556e-05 9.991008092716556e-05 0.9991008092716556 9.991008092716556e-05 9.991008092716556e-05 9.991008092716556e-05 9.991008092716556e-05 9.991008092716556e-05 9.991008092716556e-05 9.991008092716556e-05 9.991008092716556e-05 0.9991008092716556 9.991008092716556e-05 9.991008092716556e-05 9.991008092716556e-05 9.991008092716556e-05 9.991008092716556e-05 9.991008092716556e-05 9.991008092716556e-05 9.991008092716556e-05 0.9991008092716556 9.991008092716556e-05 9.991008092716556e-05 9.991008092716556e-05 9.991008092716556e-05 9.991008092716556e-05 9.991008092716556e-05 9.991008092716556e-05 9.991008092716556e-05 0.9991008092716556 9.991008092716556e-05 9.991008092716556e-05 9.991008092716556e-05 9.991008092716556e-05 9.991008092716556e-05 9.991008092716556e-05 9.991008092716556e-05 9.991008092716556e-05 9.991008092716556e-05 9.991008092716556e-05 9.991008092716556e-05 9.991008092716556e-05 9.991008092716556e-05 9.991008092716556e-05 9.991008092716556e-05 0.9991008092716556 9.991008092716556e-05 9.991008092716556e-05 9.991008092716556e-05 9.991008092716556e-05 9.991008092716556e-05 9.991008092716556e-05 9.991008092716556e-05 9.991008092716556e-05 0.9991008092716556 9.991008092716556e-05 9.991008092716556e-05 9.991008092716556e-05 9.991008092716556e-05 9.991008092716556e-05 9.991008092716556e-05 9.991008092716556e-05 9.991008092716556e-05 0.9991008092716556 9.991008092716556e-05 9.991008092716556e-05 9.991008092716556e-05 9.991008092716556e-05 9.991008092716556e-05 9.991008092716556e-05 9.991008092716556e-05 9.991008092716556e-05 0.9991008092716556 9.991008092716556e-05 9.991008092716556e-05 9.991008092716556e-05 9.991008092716556e-05 9.991008092716556e-05 9.991008092716556e-05 9.991008092716556e-05 9.991008092716556e-05 0.9991008092716556 9.991008092716556e-05 9.991008092716556e-05 9.991008092716556e-05 9.991008092716556e-05 9.991008092716556e-05 9.991008092716556e-05 9.991008092716556e-05 9.991008092716556e-05 0.9991008092716556 9.991008092716556e-05 9.991008092716556e-05 9.991008092716556e-05 9.991008092716556e-05 9.991008092716556e-05 9.991008092716556e-05 9.991008092716556e-05 9.991008092716556e-05 9.991008092716556e-05 9.991008092716556e-05 9.991008092716556e-05 9.991008092716556e-05 9.991008092716556e-05 9.991008092716556e-05 9.991008092716556e-05 0.9991008092716556 9.991008092716556e-05 9.991008092716556e-05 9.991008092716556e-05 9.991008092716556e-05 9.991008092716556e-05 9.991008092716556e-05 9.991008092716556e-05 9.991008092716556e-05 0.9991008092716556 9.991008092716556e-05 9.991008092716556e-05 9.991008092716556e-05 9.991008092716556e-05 9.991008092716556e-05 9.991008092716556e-05 9.991008092716556e-05 9.991008092716556e-05 0.9991008092716556 9.991008092716556e-05 9.991008092716556e-05 9.991008092716556e-05 9.991008092716556e-05 9.991008092716556e-05 9.991008092716556e-05 9.991008092716556e-05 9.991008092716556e-05 0.9991008092716556 9.991008092716556e-05 9.991008092716556e-05 9.991008092716556e-05 9.991008092716556e-05 9.991008092716556e-05 9.991008092716556e-05 9.991008092716556e-05 9.991008092716556e-05 0.9991008092716556 9.991008092716556e-05 9.991008092716556e-05 9.991008092716556e-05 9.991008092716556e-05 9.991008092716556e-05 9.991008092716556e-05 9.991008092716556e-05 9.991008092716556e-05 0.9991008092716556 9.991008092716556e-05 9.991008092716556e-05 9.991008092716556e-05 9.991008092716556e-05 9.991008092716556e-05 9.991008092716556e-05</probabilities>
		</cpt>
		<cpt id="nopt">
			<state id="x_120" />
			<state id="x120_135" />
			<state id="x135_150" />
			<state id="x150_165" />
			<state id="x165_180" />
			<state id="x_180" />
			<parents>exptgens pesticid</parents>
			<probabilities>0.2022393282015395 0.7496750974707588 0.04778566430070979 9.997000899730081e-05 9.997000899730081e-05 9.997000899730081e-05 0.9769069279216235 0.02269319204238729 9.997000899730081e-05 9.997000899730081e-05 9.997000899730081e-05 9.997000899730081e-05 0.0020997900209979 0.2353764623537646 0.6858314168583141 0.0763923607639236 0.0001999800019998 9.999000099990002e-05 0.2022393282015395 0.7496750974707588 0.04778566430070979 9.997000899730081e-05 9.997000899730081e-05 9.997000899730081e-05 0.0001 0.0303 0.4696 0.4696 0.0303 0.0001 0.01609678064387123 0.4838032393521296 0.4838032393521296 0.01609678064387123 9.998000399920017e-05 9.998000399920017e-05 9.998000399920017e-05 0.0008998200359928015 0.1047790441911618 0.6282743451309738 0.259748050389922 0.00619876024795041 0.0001999800019998 0.0763923607639236 0.6858314168583141 0.2353764623537646 0.0020997900209979 9.999000099990002e-05 9.998000399920017e-05 9.998000399920017e-05 0.01309738052389522 0.2760447910417916 0.5773845230953809 0.1332733453309338 9.998000399920017e-05 0.00619876024795041 0.259748050389922 0.6282743451309738 0.1047790441911618 0.0008998200359928015 9.998000399920017e-05 9.998000399920017e-05 9.998000399920017e-05 0.01309738052389522 0.2760447910417916 0.7105578884223156 9.998000399920017e-05 9.998000399920017e-05 0.00619876024795041 0.259748050389922 0.6282743451309738 0.1055788842231554</probabilities>
		</cpt>
		<cpt id="potnmin">
			<state id="x0_15" />
			<state id="x15_30" />
			<state id="x30_45" />
			<state id="x45_60" />
			<state id="x60_75" />
			<state id="x75_90" />
			<state id="x90_105" />
			<state id="x_105" />
			<parents>jordtype forfrugt</parents>
			<probabilities>0.9981011393164102 0.001299220467719368 9.994003597841297e-05 9.994003597841297e-05 9.994003597841297e-05 9.994003597841297e-05 9.994003597841297e-05 9.994003597841297e-05 0.3819472211115554 0.5025989604158337 0.1115553778488605 0.00349860055977609 9.996001599360256e-05 9.996001599360256e-05 9.996001599360256e-05 9.996001599360256e-05 0.02278860569715143 0.8181909045477261 0.1585207396301849 9.995002498750625e-05 9.995002498750625e-05 9.995002498750625e-05 9.995002498750625e-05 9.995002498750625e-05 0.1303 0.2953000000000001 0.3477000000000001 0.1809 0.04140000000000001 0.004100000000000001 0.0002000000000000001 0.0001 0.003299340131973605 0.2804439112177565 0.6579684063187363 0.0578884223155369 9.998000399920017e-05 9.998000399920017e-05 9.998000399920017e-05 9.998000399920017e-05 0.2741629185407296 0.7171414292853574 0.008195902048975513 9.995002498750625e-05 9.995002498750625e-05 9.995002498750625e-05 9.995002498750625e-05 9.995002498750625e-05 0.1032793441311738 0.2145570885822836 0.3060387922415517 0.2415516896620676 0.1054789042191562 0.02539492101579684 0.003399320135972805 0.0002999400119976005 9.998000399920017e-05 0.008098380323935212 0.1758648270345931 0.5415916816636672 0.2563487302539492 0.01769646070785843 0.0001999600079984003 9.998000399920017e-05 0.08600000000000001 0.07270000000000001 0.1043 0.1312 0.1446 0.1396 0.1181 0.2035 0.0029 0.0174 0.0709 0.1767 0.27 0.253 0.1453 0.0638 0.9981011393164102 0.001299220467719368 9.994003597841297e-05 9.994003597841297e-05 9.994003597841297e-05 9.994003597841297e-05 9.994003597841297e-05 9.994003597841297e-05 0.3819472211115554 0.5025989604158337 0.1115553778488605 0.00349860055977609 9.996001599360256e-05 9.996001599360256e-05 9.996001599360256e-05 9.996001599360256e-05 0.02278860569715143 0.8181909045477261 0.1585207396301849 9.995002498750625e-05 9.995002498750625e-05 9.995002498750625e-05 9.995002498750625e-05 9.995002498750625e-05 0.1303 0.2953000000000001 0.3477000000000001 0.1809 0.04140000000000001 0.004100000000000001 0.0002000000000000001 0.0001 0.003299340131973605 0.2804439112177565 0.6579684063187363 0.0578884223155369 9.998000399920017e-05 9.998000399920017e-05 9.998000399920017e-05 9.998000399920017e-05 0.2741629185407296 0.7171414292853574 0.008195902048975513 9.995002498750625e-05 9.995002498750625e-05 9.995002498750625e-05 9.995002498750625e-05 9.995002498750625e-05 0.1032793441311738 0.2145570885822836 0.3060387922415517 0.2415516896620676 0.1054789042191562 0.02539492101579684 0.003399320135972805 0.0002999400119976005 9.998000399920017e-05 0.008098380323935212 0.1758648270345931 0.5415916816636672 0.2563487302539492 0.01769646070785843 0.0001999600079984003 9.998000399920017e-05 0.08600000000000001 0.07270000000000001 0.1043 0.1312 0.1446 0.1396 0.1181 0.2035 0.0029 0.0174 0.0709 0.1767 0.27 0.253 0.1453 0.0638 0.2621951219512195 0.5039984006397441 0.2152139144342263 0.01799280287884846 0.0002998800479808076 9.996001599360256e-05 9.996001599360256e-05 9.996001599360256e-05 0.03409659034096589 0.1391860813918608 0.3031696830316968 0.3183681631836816 0.1610838916108389 0.03919608039196079 0.004599540045995399 0.0002999700029996999 0.0649 0.0796 0.1278 0.1675 0.1793 0.1566 0.1116 0.1127 0.1294 0.0581 0.07190000000000001 0.08400000000000001 0.0925 0.09619999999999999 0.0944 0.3735 0.06020602060206021 0.04840484048404841 0.07150715071507151 0.09550955095509553 0.1154115411541154 0.1259125912591259 0.1242124212421242 0.3588358835883589 0.2621951219512195 0.5039984006397441 0.2152139144342263 0.01799280287884846 0.0002998800479808076 9.996001599360256e-05 9.996001599360256e-05 9.996001599360256e-05 0.03409659034096589 0.1391860813918608 0.3031696830316968 0.3183681631836816 0.1610838916108389 0.03919608039196079 0.004599540045995399 0.0002999700029996999 0.0649 0.0796 0.1278 0.1675 0.1793 0.1566 0.1116 0.1127 0.1294 0.0581 0.07190000000000001 0.08400000000000001 0.0925 0.09619999999999999 0.0944 0.3735 0.06020602060206021 0.04840484048404841 0.07150715071507151 0.09550955095509553 0.1154115411541154 0.1259125912591259 0.1242124212421242 0.3588358835883589 0.2621951219512195 0.5039984006397441 0.2152139144342263 0.01799280287884846 0.0002998800479808076 9.996001599360256e-05 9.996001599360256e-05 9.996001599360256e-05 0.03409659034096589 0.1391860813918608 0.3031696830316968 0.3183681631836816 0.1610838916108389 0.03919608039196079 0.004599540045995399 0.0002999700029996999 0.0649 0.0796 0.1278 0.1675 0.1793 0.1566 0.1116 0.1127 0.1294 0.0581 0.07190000000000001 0.08400000000000001 0.0925 0.09619999999999999 0.0944 0.3735 0.06020602060206021 0.04840484048404841 0.07150715071507151 0.09550955095509553 0.1154115411541154 0.1259125912591259 0.1242124212421242 0.3588358835883589 0.2621951219512195 0.5039984006397441 0.2152139144342263 0.01799280287884846 0.0002998800479808076 9.996001599360256e-05 9.996001599360256e-05 9.996001599360256e-05 0.03409659034096589 0.1391860813918608 0.3031696830316968 0.3183681631836816 0.1610838916108389 0.03919608039196079 0.004599540045995399 0.0002999700029996999 0.0649 0.0796 0.1278 0.1675 0.1793 0.1566 0.1116 0.1127 0.1294 0.0581 0.07190000000000001 0.08400000000000001 0.0925 0.09619999999999999 0.0944 0.3735 0.06020602060206021 0.04840484048404841 0.07150715071507151 0.09550955095509553 0.1154115411541154 0.1259125912591259 0.1242124212421242 0.3588358835883589 0.2621951219512195 0.5039984006397441 0.2152139144342263 0.01799280287884846 0.0002998800479808076 9.996001599360256e-05 9.996001599360256e-05 9.996001599360256e-05 0.03409659034096589 0.1391860813918608 0.3031696830316968 0.3183681631836816 0.1610838916108389 0.03919608039196079 0.004599540045995399 0.0002999700029996999 0.0649 0.0796 0.1278 0.1675 0.1793 0.1566 0.1116 0.1127 0.1294 0.0581 0.07190000000000001 0.08400000000000001 0.0925 0.09619999999999999 0.0944 0.3735 0.06020602060206021 0.04840484048404841 0.07150715071507151 0.09550955095509553 0.1154115411541154 0.1259125912591259 0.1242124212421242 0.3588358835883589</probabilities>
		</cpt>
		<cpt id="jordn">
			<state id="x0_15" />
			<state id="x15_30" />
			<state id="x30_45" />
			<state id="x45_60" />
			<state id="x60_75" />
			<state id="x75_90" />
			<state id="x90_105" />
			<state id="x105_120" />
			<state id="x_120" />
			<parents>nmin aar_mod potnmin</parents>
